{
    "asset_names": [
        "Convertible Arbitrage",
        "CTA Global",
        "Distressed Securities",
        "Emerging Markets",
        "Equity Market Neutral"
    ],
    "w_rldar": [
        1.5581733826794524e-09,
        0.4971899640253928,
        2.240753909310577e-09,
        2.1830013902891389e-10,
        0.5028100319573798
    ],
    "w_crm_msd": [
        0.035971229294039724,
        2.0324133801135763e-11,
        1.2119643403786416e-11,
        2.85840327396575e-13,
        0.9640287706732305
    ],
    "owa_weights_crm": [
        -0.004878048780487805,
        -0.004762926611105059,
        -0.004649278654801426,
        -0.004537095413379582,
        -0.004426367388642201,
        -0.004317085082391962,
        -0.00420923899643154,
        -0.004102819632563609,
        -0.003997817492590847,
        -0.00389422307831593,
        -0.0037920268915415337,
        -0.003691219434070333,
        -0.0035917912077050047,
        -0.0034937327142482255,
        -0.00339703445550267,
        -0.0033016869332710154,
        -0.0032076806493559376,
        -0.0031150061055601106,
        -0.0030236538036862125,
        -0.00293361424553692,
        -0.0028448779329149068,
        -0.0027574353676228496,
        -0.0026712770514634256,
        -0.002586393486239309,
        -0.0025027751737531773,
        -0.0024204126158077054,
        -0.00233929631420557,
        -0.0022594167707494462,
        -0.002180764487242011,
        -0.002103329965485941,
        -0.0020271037072839095,
        -0.001952076214438595,
        -0.0018782379887526722,
        -0.0018055795320288178,
        -0.0017340913460697077,
        -0.0016637639326780175,
        -0.0015945877936564233,
        -0.0015265534308076011,
        -0.0014596513459342268,
        -0.0013938720408389772,
        -0.0013292060173245267,
        -0.0012656437771935531,
        -0.0012031758222487308,
        -0.0011417926542927367,
        -0.0010814847751282465,
        -0.0010222426865579364,
        -0.0009640568903844821,
        -0.0009069178884105595,
        -0.0008508161824388449,
        -0.0007957422742720144,
        -0.0007416866657127435,
        -0.0006886398585637086,
        -0.0006365923546275855,
        -0.00058553465570705,
        -0.0005354572636047784,
        -0.0004863506801234468,
        -0.00043820540706573084,
        -0.0003910119462343065,
        -0.00034476079943185,
        -0.00029944246846103735,
        -0.0002550474551245441,
        -0.0002115662612250468,
        -0.0001689893885652211,
        -0.00012730733894774303,
        -8.651061417528857e-05,
        -4.6589716050533846e-05,
        -7.535146376154607e-06,
        3.0662593045172905e-05,
        6.801300041077299e-05,
        0.00010452557391796942,
        0.00014020981176408631,
        0.0001750752121464476,
        0.00020913127326237745,
        0.0002423874933091998,
        0.0002748533704842385,
        0.00030653840298481796,
        0.0003374520890082618,
        0.0003676039267518942,
        0.0003970034144130391,
        0.00042566005018902054,
        0.00045358333227716295,
        0.00048078275887478974,
        0.0005072678281792251,
        0.0005330480383877933,
        0.0005581328876978181,
        0.0005825318743066233,
        0.0006062544964115336,
        0.0006293102522098721,
        0.0006517086398989637,
        0.0006734591576761321,
        0.0006945713037387009,
        0.0007150545762839948,
        0.0007349184735093372,
        0.0007541724936120527,
        0.0007728261347894649,
        0.0007908888952388977,
        0.0008083702731576755,
        0.0008252797667431223,
        0.0008416268741925618,
        0.0008574210937033182,
        0.0008726719234727156,
        0.0008873888616980778,
        0.000901581406576729,
        0.0009152590563059933,
        0.0009284313090831943,
        0.0009411076631056562,
        0.0009532976165707033,
        0.0009650106676756595,
        0.0009762563146178485,
        0.0009870440555945948,
        0.000997383388803222,
        0.0010072838124410544,
        0.0010167548247054154,
        0.00102580592379363,
        0.0010344466079030216,
        0.0010426863752309144,
        0.001050534723974632,
        0.001058001152331499,
        0.0010650951584988391,
        0.0010718262406739765,
        0.0010782038970542352,
        0.0010842376258369392,
        0.0010899369252194118,
        0.001095311293398978,
        0.0011003702285729616,
        0.0011051232289386865,
        0.0011095797926934767,
        0.001113749418034656,
        0.0011176416031595487,
        0.001121265846265479,
        0.0011246316455497706,
        0.0011277484992097471,
        0.0011306259054427333,
        0.001133273362446053,
        0.0011357003684170299,
        0.0011379164215529884,
        0.0011399310200512524,
        0.0011417536621091458,
        0.0011433938459239927,
        0.0011448610696931168,
        0.0011461648316138428,
        0.001147314629883494,
        0.0011483199626993949,
        0.0011491903282588695,
        0.0011499352247592413,
        0.0011505641503978354,
        0.0011510866033719743,
        0.0011515120818789831,
        0.0011518500841161859,
        0.0011521101082809055,
        0.0011523016525704676,
        0.0011524342151821951,
        0.0011525172943134122,
        0.0011525603881614428,
        0.0011525729949236113,
        0.0011525646127972418,
        0.0011525447399796575,
        0.0011525228746681836,
        0.0011525085150601432,
        0.0011525111593528605,
        0.0011525403057436596,
        0.001152605452429865,
        0.0011527160976087998,
        0.0011528817394777884,
        0.0011531118762341547,
        0.0011534160060752236,
        0.0011538036271983177,
        0.0011542842378007622,
        0.0011548673360798805,
        0.0011555624202329964,
        0.0011563789884574348,
        0.0011573265389505187,
        0.0011584145699095728,
        0.0011596525795319213,
        0.001161050066014887,
        0.0011626165275557955,
        0.0011643614623519695,
        0.001166294368600734,
        0.0011684247444994126,
        0.0011707620882453287,
        0.0011733158980358075,
        0.0011760956720681718,
        0.001179110908539747,
        0.0011823711056478563,
        0.0011858857615898236,
        0.0011896643745629724,
        0.0011937164427646282,
        0.001198051464392114,
        0.0012026789376427542,
        0.0012076083607138726,
        0.0012128492318027929,
        0.00121841104910684,
        0.001224303310823337,
        0.0012305355151496088,
        0.0012371171602829788,
        0.001244057744420771,
        0.0012513667657603092,
        0.0012590537224989177,
        0.0012671281128339212,
        0.0012755994349626426,
        0.001284477187082407,
        0.0012937708673905375,
        0.0013034899740843584,
        0.0013136440053611938,
        0.0013242424594183681
    ]
}