{"returns":[[1.3709584471,0.3219252652,1.2009653756,-0.040698475151,-2.0009292377],[-0.5646981714,-0.78383894088,1.0447510872,-1.5515448223,0.33377719743],[0.36312841134,1.5757275198,-1.0032086468,1.1671695492,1.1713251274],[0.63286260496,0.64289930572,1.8484819017,-0.27364570137,2.0595392423],[0.40426832314,0.0897606466,-0.66677340876,-0.46784532467,-1.3768615982],[-0.10612451609,0.27655074729,0.10551381246,-1.238252328,-1.1508555656],[1.5115219974,0.67928881606,-0.42225588187,-0.0077620337773,-0.70582139476],[-0.094659038413,0.089832886579,-0.12235017195,-0.80028217795,-1.0540557821],[2.0184237139,-2.9930900832,0.1881930345,-0.53349232995,-0.64574372314],[-0.062714099052,0.28488295353,0.119160958,1.2876752456,-0.18537796768],[1.3048696542,-0.36723464274,-0.025092550867,-0.17552587024,-1.2012220507],[2.2866453927,0.18523056487,0.10807272794,-1.0717823842,2.036972167],[-1.3888607011,0.58182372737,-0.48543523585,0.16320688247,0.10777474489],[-0.27878876682,1.3997368273,-0.50421713069,-0.36273841563,-0.084108100506],[-0.13332133639,-0.72729205947,-1.6610990799,0.59001354799,0.4956196416],[0.63595039807,1.302542632,-0.38233372687,1.4324219277,0.037415186118],[-0.28425292142,0.33584811975,-0.51265025788,-0.99269251111,-0.13208803696],[-2.6564554209,1.0385060987,2.7018910003,0.45465029758,1.4767874236],[-2.4404669286,0.92072856829,-1.3621162312,0.084898058678,-0.21703021009],[1.3201133457,0.72087816287,0.13725621856,0.89556558226,-1.2836022041],[-0.30663859408,-1.0431189386,-1.4936250673,-0.22977813895,0.38566789044],[-1.781308434,-0.090186386611,-1.4704357414,0.83661906846,-0.35151287353],[-0.17191735576,0.623518162,0.1247023862,-1.7450558613,-0.52179609336],[1.2146746992,-0.95352335777,-0.99663913488,1.6894589213,-1.0681312007],[1.8951934613,-0.54282881457,-0.0018226143047,0.86477797852,0.42836590327],[-0.43046913161,0.58099649768,-0.42825888143,-0.15077598889,-0.17401823443],[-0.25726938277,0.76817873783,-0.61367160645,-1.4490071301,0.51566772865],[-1.7631630852,0.46376758854,-2.0246778454,0.64300870004,-0.23436527731],[0.46009735483,-0.88577629741,-1.2247479504,0.48319386381,-0.65850342582],[-0.63999487596,-1.0997808986,0.17951644112,-0.0063556264214,1.2502366041],[0.45545012324,1.5127070098,0.56762059442,0.15145589286,-0.27176371511],[0.70483733723,0.25792143753,-0.49287735355,-0.58410897035,0.94795199588],[1.035103522,0.08844022916,6.2884065351e-05,0.36880673263,-1.2015824301],[-0.60892637541,-0.12089653754,1.1228896434,0.29465433972,-0.46611609638],[0.5049551233,-1.1943288952,1.439855743,-0.27925937334,-0.26935139515],[-1.7170086791,0.61199689804,-1.0971137684,-1.3362366549,-0.39096540813],[-0.78445900838,-0.21713984575,-0.11731956025,0.70074881844,1.348707012],[-0.85090759418,-0.18275670633,1.2014984009,0.55419662227,-0.022764701298],[-2.4142076499,0.93334632857,-0.46972958057,-0.8363065928,0.2442258511],[0.036122606892,0.82177311051,-0.052469484939,-1.594588162,-0.94237170786],[0.2059986002,1.3921163759,-0.086107298237,0.20495858059,-0.72921727651],[-0.36105729855,-0.47617392305,-0.88767901791,-0.34508797797,0.99806890855],[0.7581632357,0.65034856073,-0.44468400488,0.25261170336,1.2584816646],[-0.72670482708,1.3911104564,-0.029444879088,-1.2940024655,1.2488636888],[-1.3682810444,-1.1107888794,-0.41386884906,-0.95917044438,-1.3806370495],[0.43281802589,-0.86079258688,1.1133860234,1.0857748537,2.0499606936],[-0.81139317619,-1.1317386809,-0.48099284165,0.40377490472,1.0168728298],[1.4441012617,-1.4592139995,-0.4331690326,0.58648753672,-0.026717464138],[-0.43144620261,0.079982553241,0.69686257655,1.8152284462,0.7036077788],[0.6556478834,0.65320433965,-1.0563684132,0.1288214286,-0.97138522915]],"w_init":[0.2,0.2,0.2,0.2,0.2],"ptc":[0.01],"opt_weights":[0.19380256904,0.33727532246,0.080199673684,0.20001357849,0.18870885625],"objective_measures":{"mean":[0.011675268523],"StdDev":[0.43992303402]}}
